56 100
</s> -0.0087599 0.0077705 -0.0070002 -0.0016803 0.0045081 0.0014417 0.0068161 0.0011618 0.010509 0.0089961 -0.00039486 0.0033636 0.0099304 0.0077059 -0.0038322 -0.0022228 7.8728e-05 0.0057708 0.00074198 -0.0080359 -0.0014369 0.0063371 0.0059575 -0.006755 0.0056867 -0.0066655 0.002339 -0.0032753 -0.0014323 0.01035 -0.0071429 -0.0040788 -0.0079793 -0.0062826 -0.0099004 -0.00077276 0.0045964 -0.0084813 -0.0017658 -0.0070604 0.0098796 0.0074882 0.0041652 0.0020258 -0.0053825 0.00156 -0.0053504 -0.0049666 -0.0075084 0.0024957 -0.0061816 0.0097745 -0.0089105 0.0044119 -0.0001732 -0.0061329 0.0019181 0.0028003 0.004297 0.0034256 -0.006863 0.0045755 0.0068668 0.0057067 -0.0039805 0.00088082 -0.007641 0.0059069 0.0091462 0.0055628 -0.010432 -0.00035869 -0.0044325 0.0010097 -0.00066518 -0.0037002 0.0099121 0.0093004 -0.00033252 -0.0035634 -0.0097056 0.0060188 0.0089025 -0.009438 -0.0053811 -0.0080283 0.00036703 0.00065569 -0.0035662 -0.0035133 0.010109 0.0046136 0.0094597 -0.0092579 0.0010201 -0.0087427 0.0072392 0.010284 -0.0054817 -0.0024739 
Not 0.0024159 0.0050979 0.0083825 -0.0092986 0.0066467 0.0080522 -0.006532 0.0012633 -0.0034833 -0.0020776 -0.00079731 -0.0063574 -0.0049062 0.0021656 -0.0060949 -0.007134 0.0034002 0.0060392 -0.0068681 -0.00058271 -0.0048821 0.009925 0.0039396 0.0069936 -0.00861 -0.0061412 -0.0098949 -0.0012443 -0.0022419 -0.0073286 -0.0049872 -0.0007113 0.0039223 -0.0058824 -0.0063074 -0.0021028 -0.0072404 0.004295 -0.00057206 -0.0027291 -0.01 0.0094379 -0.0052038 0.0030647 0.0088409 0.0019532 0.0081402 -0.003348 -0.0039707 0.0035218 -0.001069 -0.0018847 0.0023432 0.0049185 -0.0090968 0.0035684 -0.0096708 0.00063785 0.0087369 -0.0024474 -0.00012847 0.0035568 0.0056563 0.007821 0.0045716 -0.0035878 -0.0070467 -0.0052585 -0.0058282 -0.0056559 0.0016115 0.0050967 0.0058362 -0.0073149 -0.0023304 -0.0025356 -0.0039282 0.0029009 0.0063974 0.0056297 0.00055032 -0.0058108 0.0027458 0.0028259 0.0047971 0.003613 -0.001986 -0.0098815 -0.0047299 0.0072706 0.0028448 0.0024979 0.0024881 0.0018085 0.0093655 0.0023034 -0.00071106 0.0023589 -0.0068227 -0.0071018 
Status 0.0073352 -0.0080576 -0.00085296 -0.0035135 0.00032234 -0.0073477 -0.0086569 -0.0094817 0.0096241 0.009205 -0.010048 -0.002434 -0.0019414 -0.006026 -0.0029015 0.0047331 0.0025176 -0.0028617 -0.0076438 0.0031975 0.0070568 -0.0064911 -0.0064393 0.0027198 -0.00039283 -0.001351 0.0050222 -0.0094586 -0.0083933 0.0021187 0.0030529 0.0071425 -0.0045117 0.0029991 -0.0085256 -0.0071437 -0.0075721 0.0088968 0.0086961 0.0084059 -0.0077234 0.0046408 0.0047195 -5.6231e-05 0.0038039 0.0046332 0.0082105 0.0076924 0.0060504 0.0073533 -0.001658 -0.00045335 0.0054045 -0.005634 -0.0097357 0.008009 0.0018293 -0.0083454 -0.006713 -0.004213 0.0097729 0.008545 0.0067539 0.0065788 -0.0062929 0.0031245 -0.0055075 -0.0022149 0.0039506 -0.0088728 0.0072576 0.0035559 0.0034483 -0.0097717 -0.0090204 0.0032607 0.0087977 -0.0038624 0.0089808 -0.0078529 0.0087304 -0.0025047 -0.0069588 -0.0050988 -0.0021129 -0.0068653 -0.0022883 0.0094828 0.0065339 -0.0036251 -0.0063424 -0.00054736 0.0068373 -0.0030962 0.0033405 -0.0013177 -0.0022103 0.0051913 0.0058774 0.0088703 
Found 0.00035484 0.0092692 -0.0060826 -0.0034281 0.00083687 0.0079822 -0.0060034 -0.00046829 0.0060332 0.0064923 -0.0042741 0.0089209 -0.0072762 0.0043131 0.0053226 -0.0055767 -0.0067654 -0.0077641 0.0077861 0.0030266 0.0084107 0.0086151 -0.0003125 0.0014103 -0.0070698 0.0047934 0.007798 -0.0023466 -0.0092523 -0.0049813 0.0066348 0.0053496 -0.00061996 0.0084576 -0.0018779 0.0078465 0.002102 -0.0040192 -0.0017758 0.0042808 0.0021517 -0.00040867 -0.0039723 -0.006793 -0.00081255 -0.0043983 0.0073324 -0.0011976 0.0045251 0.0065647 -0.0095181 -0.0059379 0.0014578 -0.0067155 -0.001923 -0.0052544 -0.00031828 0.0027126 0.004376 0.00067462 -0.0081588 0.0026825 0.0030863 -0.0084078 -0.006906 0.002335 0.00074195 -0.0053293 -0.0014309 -0.0041052 0.0086795 0.00262 0.00057357 0.0040557 -7.3073e-05 0.0083951 0.0047465 0.0092671 0.0065973 -0.007662 0.0010872 0.0031612 0.0081128 0.0053402 0.0096035 1.8718e-05 -0.0011896 0.0075299 -0.0092436 -0.0088405 0.0011395 -0.0059963 0.00090833 0.0031488 -0.0060623 -0.0039846 0.00032119 0.004312 -0.0024117 0.0023417 
not -0.0042639 0.0049537 0.00028077 0.0015161 0.0094421 0.0092557 0.0044819 -0.0094818 0.0053615 0.0042812 -0.00045312 -0.0047336 -0.0047888 0.0026624 0.008751 0.00083338 0.0028293 -0.0022401 -0.0057946 0.0089731 0.0082778 -0.0029586 -0.0045129 -0.0091863 0.0029774 0.0038268 0.0092139 0.0036402 0.0073149 0.0069235 0.0054201 -0.008811 -0.0079426 -0.0018202 0.0009939 0.0070259 -0.0091363 0.0093106 0.0057532 0.00076229 -0.0037472 -0.0024577 0.0075515 0.0093779 0.0047193 -0.0099595 -0.00082248 0.0087844 -0.0019675 -0.0030607 -0.0051909 0.0052455 0.0043425 0.00035104 0.0094122 0.0073312 -0.0051828 0.0050163 -0.0095333 0.0092106 0.0029876 0.0017977 -0.004425 -0.0012203 0.0072907 0.0053565 -0.0045425 -0.0088192 -0.0057122 0.0041817 -0.0041023 -0.00091232 -0.0073785 0.0069786 -0.0049255 -0.004211 -0.0068794 -0.0097474 0.0045135 -0.0024716 -0.0077798 0.0019534 0.00079674 0.0034256 -0.00067056 -0.0030108 0.0025397 0.0055272 -0.0045188 0.0074594 0.0055793 0.00077313 0.0090042 -0.00056799 0.002356 0.0076455 -0.00050001 -0.0088445 -0.006361 -0.0059708 
你似乎来到了没有知识存在的荒原 0.0093969 0.0050534 0.0062468 -0.00454 0.0051534 0.0035308 -0.008015 -0.0029152 -0.0085908 0.0094572 -0.0001038 0.0038543 -0.0053387 -0.0015903 -0.0064982 0.0040238 -0.0064927 -0.0082845 0.0073882 -0.006591 -0.0071174 0.0019992 0.0063528 -0.0028985 0.0025434 0.0064709 -0.00014699 -0.0067011 -0.0083641 -0.0066607 -0.0068632 0.0069149 -0.00476 -0.0011716 0.0039786 0.0062808 -0.0073538 -0.0050891 -0.0083928 0.0090159 -0.0062683 -0.00037402 -0.0044503 0.0032042 0.0078656 -0.0030513 -0.0028498 -0.0098645 -0.0052908 0.0081332 -0.0058738 -0.0085542 -0.0098469 0.0064763 0.0041772 0.0026488 0.0018717 -0.00056514 0.00045194 -0.0023843 -0.0082591 0.0079205 -0.0062476 -0.0021317 0.0049254 0.0011787 0.0062613 0.00022332 0.0097998 0.0094033 -0.0014011 0.0031283 0.0092825 0.007189 -0.0040188 -0.0017201 0.00026511 0.0058109 0.0007905 -0.008166 -0.0012478 0.0069143 0.0055768 -0.0061074 0.0056401 -0.0063762 0.0016237 -0.003763 -0.001744 0.0098355 -0.0067802 -0.0032825 -0.0085302 -0.0064808 -0.009196 -0.00066682 0.0033507 -0.0087695 -0.0021979 -0.0066074 
– 0.0098394 0.0074173 0.0034949 0.0017352 -0.0048763 0.0018471 -0.0046002 -0.0046386 -0.0081127 0.0026718 -0.0070334 0.0089621 -0.0091853 0.0046715 -0.00070672 -0.0055225 0.0014386 0.0020931 0.0039694 0.0032862 -0.0065247 0.0050602 0.0064746 0.0050929 -0.0036174 0.00066643 -0.0070874 0.0058277 0.0082278 0.0058598 -0.0097931 0.00024163 -0.0041184 0.0011853 0.00011505 -0.0037934 0.0095918 0.0092771 -0.0010517 -0.0039054 -0.00888 0.0060355 0.0096391 -0.0089927 -0.0051793 -0.0078873 0.00073794 0.00044239 -0.0034348 -0.003638 0.0095141 0.0046582 0.009057 -0.0089917 0.0014216 -0.0087513 0.0062094 0.0095466 -0.0055012 -0.0018781 0.0023978 0.005119 0.0083015 -0.0093052 0.006631 0.0080608 -0.0064478 0.0013342 -0.0034808 -0.0020859 -0.00067697 -0.0063077 -0.004829 0.0022219 -0.0060296 -0.0071786 0.0033745 0.0060399 -0.0069195 -0.00058881 -0.0048436 0.0098836 0.0040187 0.0069701 -0.0086002 -0.0061603 -0.0098198 -0.0012224 -0.002199 -0.0072918 -0.0050415 -0.0007653 0.003946 -0.0058514 -0.0063312 -0.002116 -0.0072019 0.0042721 -0.0005367 -0.0027334 
404 -0.0099705 0.0094467 -0.0051062 0.0030667 0.0088274 0.0019113 0.0080426 -0.0034176 -0.0039504 0.0035286 -0.0010632 -0.0018345 0.0023287 0.0048599 -0.0090698 0.0035475 -0.0096272 0.00069522 0.0087728 -0.0024466 -0.00015157 0.0035453 0.00566 0.0079047 0.0045439 -0.0035543 -0.0071338 -0.0052812 -0.0057843 -0.0057178 0.0015823 0.0050969 0.0057744 -0.0073443 -0.0023593 -0.0025228 -0.0039693 0.002884 0.0064306 0.0056801 0.00048342 -0.0058196 0.0026434 0.0027774 0.0048035 0.0036258 -0.0019699 -0.009844 -0.0047774 0.0072873 0.0028409 0.002444 0.0025054 0.0018103 0.009301 0.002341 -0.0006576 0.0023832 -0.0068418 -0.0071556 0.0073171 -0.0080365 -0.00093398 -0.0035201 0.00030666 -0.0073391 -0.0085727 -0.0094108 0.0096265 0.0091967 -0.0099277 -0.0023843 -0.0018642 -0.0059697 -0.0028362 0.0046886 0.0024919 -0.002861 -0.0076952 0.0031914 0.0070952 -0.0065326 -0.0063602 0.0026963 -0.00038306 -0.0013701 0.0050972 -0.0094368 -0.0083504 0.0021555 0.0029987 0.0070884 -0.0044879 0.0030301 -0.0085494 -0.007157 -0.0075336 0.0088738 0.0087315 0.0084016 
HTTP -0.0076938 0.0046496 0.0048171 -5.4274e-05 0.0037904 0.0045914 0.0081129 0.0076228 0.0060707 0.0073601 -0.0016522 -0.00040322 0.00539 -0.0056927 -0.0097087 0.0079882 0.001873 -0.0082881 -0.0066771 -0.0042122 0.0097498 0.0085336 0.0067576 0.0066624 -0.0063206 0.003158 -0.0055946 -0.0022377 0.0039944 -0.0089347 0.0072284 0.0035561 0.0033865 -0.0098011 -0.0090493 0.0032736 0.0087566 -0.0038793 0.009014 -0.0078025 0.0086635 -0.0025136 -0.0070611 -0.0051474 -0.0021065 -0.0068525 -0.0022722 0.0095203 0.0064864 -0.0036084 -0.0063463 -0.00060119 0.0068546 -0.0030945 0.0032759 -0.0012801 -0.0021568 0.0052157 0.0058583 0.0088166 0.00034841 0.0092925 -0.0061427 -0.0034442 0.0008329 0.007984 -0.0059364 -0.00042146 0.00602 0.0064943 -0.0041832 0.0089631 -0.0072178 0.0043542 0.0053795 -0.0056079 -0.0067867 -0.0077626 0.0077393 0.0030167 0.0084503 0.0085888 -0.00024528 0.0014023 -0.0070593 0.0047819 0.0078537 -0.0023372 -0.0092208 -0.0049585 0.0065899 0.0053158 -0.00061139 0.0084821 -0.0018859 0.0078364 0.0021107 -0.0040481 -0.0017519 0.0042886 
exists. 0.0021676 -0.00040357 -0.0039143 -0.0067885 -0.00082544 -0.0044239 0.0072731 -0.001236 0.0045439 0.0065658 -0.0095044 -0.0059019 0.0014544 -0.0067496 -0.0019022 -0.0052727 -0.00029064 0.0027505 0.0043984 0.00067638 -0.0081746 0.0026698 0.0030928 -0.0083572 -0.0069247 0.0023548 0.00069029 -0.0053403 -0.0013978 -0.0041418 0.0086569 0.0026134 0.0005374 0.0040383 -9.7592e-05 0.0084026 0.0047291 0.0092578 0.0066233 -0.0076325 0.0010433 0.0031558 0.0080508 0.0053101 0.0096037 2.4114e-05 -0.0011858 0.0075525 -0.0092696 -0.0088309 0.0011441 -0.006025 0.00092243 0.0031468 -0.0061005 -0.0039648 0.00036069 0.0043344 -0.0024215 0.0023068 -0.0042788 0.0049631 0.0002298 0.0015175 0.0094284 0.0092635 0.0045327 -0.0094342 0.0053706 0.0042718 -0.00037822 -0.004705 -0.0047409 0.0026981 0.0087878 0.00080442 0.0028143 -0.0022402 -0.0058227 0.0089719 0.0082965 -0.0029869 -0.0044674 -0.0092058 0.0029819 0.0038134 0.009261 0.0036574 0.0073421 0.0069488 0.0053883 -0.0088482 -0.0079232 -0.0018014 0.00097411 0.0070177 -0.0091021 0.0093021 0.0057766 0.00075404 
付费咨询 -0.0037136 -0.0024424 0.00764 0.0093683 0.0047325 -0.0099948 -0.00091011 0.0087055 -0.001968 -0.0030365 -0.0052278 0.0052696 0.0043077 0.00029099 0.0094154 0.0073301 -0.0051503 0.0050575 -0.0095051 0.0092049 0.002975 0.001814 -0.0044313 -0.0011443 0.0072766 0.0053891 -0.0046222 -0.0088543 -0.0057024 0.0041262 -0.0041147 -0.00088604 -0.0074404 0.0069463 -0.0049327 -0.004196 -0.0069434 -0.0097635 0.0045237 -0.002419 -0.0078276 0.0019506 0.0007096 0.0033845 -0.00065006 -0.0029919 0.0025764 0.0055537 -0.0045736 0.0074807 0.0055468 0.00071054 0.0090056 -0.00055302 0.0022929 0.0076935 -0.00047532 -0.0088496 -0.0063813 -0.0060058 0.0093583 0.0050726 0.0061234 -0.0045388 0.0051054 0.0035496 -0.0078888 -0.0027914 -0.0085721 0.0094259 9.513e-05 0.0039272 -0.0052128 -0.0014934 -0.0063961 0.0039559 -0.0065277 -0.0082852 0.0073198 -0.006588 -0.0070724 0.0019189 0.0064621 -0.0029527 0.0025491 0.0064283 -3.1921e-05 -0.0066509 -0.0082866 -0.0066003 -0.0069318 0.0068188 -0.0047056 -0.0011146 0.0039414 0.0062519 -0.0072666 -0.0051153 -0.008335 0.0089878 
Apache -0.0062447 -0.00037412 -0.004342 0.0032309 0.007812 -0.0031038 -0.002975 -0.0099107 -0.0052142 0.0081107 -0.005786 -0.0084503 -0.0098249 0.0064084 0.004248 0.002574 0.001929 -0.00047207 0.00049541 -0.0023824 -0.0065976 0.0056796 -0.0024243 0.0059358 -0.00025871 -0.0075767 0.0023634 -0.0095439 0.009792 0.0086505 0.0070514 -0.0038598 0.0084462 0.004313 0.0017768 0.0065889 -0.0094342 0.0015854 -0.0082406 -0.0062426 0.0072883 0.0037957 0.00089529 -0.0023326 0.001227 -0.0027369 -0.0068133 0.0025724 0.0064622 0.0096968 -0.0034647 0.0033722 -0.0069589 -0.0030096 -0.0085226 0.0087125 -0.0030471 -0.0073504 0.0055824 -0.0033868 0.0096406 0.0048395 -0.003103 -0.0065093 0.00021031 -0.0062842 0.000885 0.00081854 -0.006185 -0.0046864 -0.0039331 0.007968 -0.0082853 -0.00059098 0.00864 -0.0011006 -0.0071468 -0.0058156 -0.0020987 -0.0034213 -0.003033 6.1789e-05 0.0030184 0.00013537 0.002768 -0.008696 -0.0040892 0.0016974 0.0065056 0.0017728 -0.0096367 -0.0095945 0.0018129 -0.0075975 -0.0098213 0.0023987 0.0092776 0.0085577 0.007943 0.0021566 
Tomcat/8.5.54 -0.00774 0.002079 0.0093734 -0.007967 -0.00039614 -0.0058189 -0.0086254 -0.0091678 0.0031835 0.0027159 0.0090849 -0.00060413 0.008126 -0.0080364 -0.0071068 -0.0075528 0.0024696 0.0091683 -0.00096232 0.006251 -0.005237 0.00019742 0.0066277 -0.0085248 0.0032238 0.0061534 -0.0029796 -0.0073411 0.0031159 0.0057689 0.0085915 -0.002649 0.00028483 -0.0055846 -0.0021241 -0.0043452 -0.0032561 0.0020673 -0.0037756 0.0088693 0.00022703 0.0097577 -0.0020681 0.0038871 -0.0072124 -0.0023192 -0.0096531 0.0075932 0.0055673 -0.0045691 -5.2304e-05 0.0084339 -0.0020721 -0.0017163 -0.0027241 0.0057916 -0.0043131 -0.0013925 0.0089159 0.004466 -0.0099792 0.0088983 -0.00030526 -0.0038463 0.0076178 -0.0061558 0.0061705 0.0032606 0.0021395 -0.0029727 0.0080074 0.0063748 -0.0052573 -0.00021433 -0.0080861 -0.0029607 -0.0092783 -0.0086114 0.0075082 0.0051131 0.0097133 -0.002968 0.0013893 0.0057588 -0.00090919 0.0028626 -0.0041819 -0.00052043 -0.0015187 -0.0013823 -0.006886 0.00011607 0.0015985 -0.0046567 0.00523 0.00494 0.0021553 -0.0042285 0.0029076 0.0013276 
(Debian) -0.0090131 -0.0016313 -0.004618 -0.0044268 -0.00043043 -0.0027927 0.005959 -0.0097407 0.00049844 0.0045664 -0.0042614 -0.0050325 -0.0049773 -0.0064325 0.0086519 -0.0053681 0.0087356 -0.0051585 -0.0036436 -0.0043039 0.0046015 -0.0061136 0.0081567 0.0030454 -0.0094248 -0.0046463 -0.0072294 -0.0088311 0.0093305 0.0083341 -0.00991 0.0051979 0.0062144 -0.0019677 0.0042627 -0.0006109 -0.0050212 0.0042655 -0.005327 -0.0035702 0.0041047 -0.0030746 -0.002826 -0.0046605 0.0092219 0.0072612 0.00018093 -0.0088355 -0.0067354 -0.0056746 -0.003972 0.0041414 0.00106 -0.0039532 -0.0071605 -0.0042902 -0.0049766 0.007811 0.0074523 0.006736 -0.0054258 -0.00069596 -0.00045869 0.0099118 -0.0024563 -0.00079568 0.0063112 0.0053414 0.0021817 0.0046901 0.0068293 0.0092374 0.00086535 -0.0013194 -0.0093639 0.0059206 -0.006278 -0.0065779 -0.0033916 0.0015819 0.009516 0.0070085 0.0035844 0.0032742 -0.0026382 -0.0037128 -0.0011035 0.0055666 -0.0019612 -0.0078162 0.0044062 -0.0029655 -0.0031773 -0.0095704 -0.00815 -0.0034672 0.0076072 0.0022449 0.0080745 -0.0056376 
one 0.007347 0.0049807 -0.0040271 -0.00027636 0.0057496 -0.0037493 0.0053544 0.0089879 0.003026 0.002775 -0.0026359 0.0088771 0.003721 0.003758 -0.0033983 0.0073896 0.0057372 0.00050643 0.0017567 0.0076404 -0.0093358 0.0085445 -0.0022607 0.0031972 -0.0083723 0.0059997 -0.0019568 0.0091475 0.0021175 0.0029293 0.0015789 0.0078925 -0.0044928 -0.0013199 0.00069424 -0.0012039 -0.0035785 -0.0055377 0.005542 -0.0039197 0.0068149 0.0071682 0.0094039 -0.0072484 -0.0041305 -0.00043476 0.005694 0.0053636 -0.0084763 9.7567e-05 0.0032105 0.00059618 0.0088131 0.0069508 0.0061665 0.0056965 -0.0056881 0.0019672 0.0064856 -0.0014898 -0.0056798 0.0092023 0.0021205 -0.0035757 0.0083354 0.00116 0.004597 0.0075756 -0.00090317 0.0031223 -0.008934 -0.0017752 -0.0070433 -0.0034634 0.0062323 -0.0005744 0.0094036 -0.0044991 -0.0012312 -0.0086484 -0.0063304 -0.0046887 -0.003769 -0.0067339 -0.0038448 -0.0053039 -0.0085723 -0.00066347 0.0072315 0.0017418 0.0072819 -0.0048104 -0.0089058 -0.0019046 0.009785 0.0067971 -0.00050764 0.0085071 0.00327 -0.0052732 
- -0.0078799 -0.0036731 0.00619 0.00061063 0.0092206 -0.0099871 0.0075408 0.0050262 -0.0085395 -0.0076377 -0.0077487 -0.0020257 -0.0081899 -0.0037664 -0.0021977 0.0020694 -0.0092461 -0.00129 0.0051852 -0.005392 0.0014299 -5.7588e-05 -0.0095468 -0.006889 0.0088426 0.0085595 -0.0010144 -0.0089036 0.00075099 -0.0015119 0.0092312 0.00061636 0.00045643 -0.004636 0.0075683 -0.0083761 -0.0044355 0.0055035 -0.0016353 0.0079963 0.0065452 0.0040233 0.00097801 -0.0084528 -0.0040158 -0.0023544 0.0085588 -0.0026588 0.0046293 0.003919 0.00074415 -0.0077589 -0.005845 0.0064121 -0.0081149 0.0040834 -0.0081794 0.008599 0.0015329 -0.0085269 0.0025342 0.0051345 0.0051566 0.0087377 -0.00058302 -0.0099709 0.008306 0.0075348 0.0060827 0.0038957 -0.00025661 0.00061217 -0.0012585 -0.0093212 0.0089329 0.0045924 -0.00033549 0.0001143 -0.0090787 0.0084129 -0.0040051 -0.0064524 0.0012466 0.0076572 0.0045589 0.00073556 0.00087068 -0.0076584 -0.0013274 -0.0016873 0.0017021 0.0081318 -0.0048264 0.0039497 9.738e-05 0.0015792 -0.0037996 -0.0095531 -0.00089481 0.0051339 
知乎 -0.0056139 -0.0060888 -0.0084421 -0.0032185 0.0086724 0.0039539 -0.0050007 0.0010207 0.00091011 0.0049621 0.0011309 -0.0084868 0.0080019 0.0088 -0.005361 0.0053294 0.0091115 -0.007603 -0.0027133 -0.002017 0.0086807 0.00010113 0.0022635 0.0010552 0.00016097 -0.0028512 -0.0058949 0.0043917 -0.0070769 0.0087479 -0.009868 -0.0021607 -0.00051817 0.0069626 -0.0028598 -0.0020644 -0.0030991 -0.0065983 0.0047073 -0.0031022 -0.0042578 -0.0061767 0.0027607 0.0040211 -0.004902 0.0028824 0.0099493 -0.0032452 -0.0066357 -0.0031736 -0.0038635 0.0035613 0.00062309 0.0077685 -0.0022146 0.002563 -0.004428 -0.00017303 -0.0066958 0.0078882 -0.0024926 0.0092914 0.0012534 -0.0035652 0.0056282 0.0037916 0.0041195 -0.0097786 -0.00044805 0.0062363 -0.0014742 -0.0068512 -0.0095864 0.0028616 -0.001437 -0.0048852 -0.0061672 0.0090617 -0.009066 0.0052234 -0.0048445 0.0035046 0.0014413 -0.0060918 -0.0053728 0.0036219 -0.0014056 0.00067996 0.0097132 0.0079914 -0.0044663 0.0091902 0.0076647 0.0014936 0.0076705 -0.0051289 0.00082781 -0.0026647 0.0026596 -0.0043399 
关注 -0.0040351 0.00070808 -0.0035778 0.001488 -0.0031402 0.00086392 0.0047029 0.0087832 -0.0053157 0.0095717 -0.00024464 -0.0099285 -0.0054769 0.00043031 -0.0077879 -0.0019244 -0.0095439 -0.0059937 -0.0066026 -8.724e-05 0.0094525 0.0022824 -0.0096655 0.0053033 0.0053062 0.0056033 0.0062559 0.0061924 -0.0042788 0.0079205 -0.00090403 0.006985 -0.0074846 -0.005916 -0.0020371 0.003363 0.0042126 0.0062614 -0.0081472 0.0099163 0.00041316 -0.0049091 -0.00054866 -0.0048323 0.0091756 0.0019759 -0.0010928 -0.0024313 0.0047058 -0.0023207 -0.0094941 0.00054744 0.0077153 0.0036216 0.0002108 0.0086451 0.0089283 0.0078212 -0.0031056 0.008208 -0.0066074 -0.0018407 0.0090081 -0.0069822 0.0044158 -0.0037326 0.0021228 0.001279 0.0097478 0.0090938 0.0087105 -0.0058606 0.0072429 -0.0070173 0.0044026 -0.0063558 -0.0013187 0.0087588 0.003502 -0.0056372 0.0071963 -0.0047187 0.0050192 -0.0077828 -0.00014903 0.0042171 0.00057995 0.0039842 0.0096991 -0.0063312 -0.0021562 0.0010064 0.0054227 0.0066473 0.0018192 -0.00153 -0.0099051 -0.0019418 -0.00064305 -0.001672 
推荐 0.005373 0.0096511 -0.0080229 0.00081748 -0.0057993 0.0014905 -0.0095568 -0.0036855 -0.006658 -0.0018272 0.0048739 -0.0023359 -0.0081467 0.0023703 0.00090984 -0.0063057 -0.001443 -0.0070568 -0.0016024 -0.008308 -0.0099771 0.0083706 0.0045311 0.0092978 0.0064174 0.0057959 0.0041841 0.0098554 0.0082079 -0.009509 -0.0029933 -0.0054048 0.0070575 -0.005351 -0.0071263 -0.0094272 -0.0089846 0.0020677 0.0062631 -0.0072822 -0.00046734 -0.0094538 -0.0029924 0.0036028 -0.0063402 0.0093137 -0.0012318 0.004242 0.0026693 0.0029466 0.004632 -0.0048868 -0.0026063 -0.0019673 -0.0072123 -0.0075429 0.0082449 0.0086418 -0.00065874 -0.0030356 0.001483 0.0025937 0.0080209 0.0083281 -0.0056357 -0.0091933 -0.0060007 -0.0095803 0.0057202 0.0018696 0.008691 0.0074969 0.007588 0.0053886 0.0080407 0.0069213 -0.0019196 0.0072686 -0.00051983 -0.0014696 0.0019541 -0.0041852 -0.0026871 0.0095726 0.00087796 -0.0019825 -0.0057947 -0.0082508 0.0090211 0.0075166 -0.0099084 -0.0072233 -0.005683 0.0020726 -0.0086006 -0.0059286 0.0074473 -0.0086445 -0.00297 0.0096688 
热榜 0.0011896 0.00040259 0.00084029 0.0079961 -0.0011478 -0.0041389 -0.0048057 -0.0083286 -0.0051121 0.0065146 0.0089944 0.0012254 0.0065514 0.0090149 -0.0057448 -0.0014285 -0.0024382 0.0067484 0.0062021 0.005097 -0.0031471 -0.0060207 -0.005699 -6.5021e-05 -0.0086937 -0.0061639 0.0043952 0.0029767 -0.0017288 0.0019853 -0.0047604 -0.0011109 -0.0037586 0.0029913 -0.009043 0.0038949 0.0055158 -0.0048822 -8.6625e-05 0.0074211 0.0092367 0.0055109 0.00030037 -0.00012402 0.0010662 0.0094506 0.0033858 -0.0066275 -0.0079944 -0.0067041 0.0015704 -0.0095091 -0.0097701 -0.0093377 -0.0072822 0.0098462 0.0064227 0.008352 0.0070916 -0.0034834 0.0060232 -0.0074882 -0.0010926 0.0045537 -0.0063657 -0.00062821 -0.0069075 0.0085126 -0.00048848 0.0091825 0.0011293 -0.0016388 0.00063554 -0.0093256 0.0099655 -0.0039421 -0.0064172 -0.004234 -0.0024194 0.006447 0.0010481 0.0078018 0.0016867 0.0098003 0.0024567 0.0039866 0.0021141 -0.0012829 -0.0017984 -0.00059051 0.007325 0.0068187 -0.0017437 -0.0069557 -0.0039534 0.0031819 -0.00038868 -0.0033494 0.0033334 0.0091445 
that 0.0052371 0.0057566 -0.00084536 0.0041284 -0.0012025 -0.0056731 0.0034923 -0.0069894 -0.0077042 0.0051498 -0.0001813 -0.0040807 -0.0017877 0.005397 -0.0057367 0.0035343 0.0064898 0.0079794 -0.0052537 -0.0072344 0.0064688 -0.0012023 0.0081826 -0.00032167 -0.0025107 0.0067567 0.0018519 -0.003648 -0.0063328 -0.00034743 -0.0084156 0.0023372 0.0044041 -0.00020985 -0.005666 0.0041448 -0.0009151 0.008243 -0.0068302 0.0020526 -0.0045291 0.0079625 0.0092953 -0.005125 -0.00076406 0.0070506 0.0021497 0.0040235 -0.0041765 0.007621 0.0059209 0.0077575 0.00165 -0.0078561 -0.00035473 0.0052144 -0.0057347 0.0077729 -0.0001045 -0.0029366 0.0031446 0.0094856 0.0041988 -0.0040662 0.0087839 3.8263e-05 -0.0036042 0.0026355 -0.0077793 -0.0064953 0.0035129 0.0020039 0.0028007 0.0094176 0.0017623 0.0080558 0.0011107 -0.0069396 -0.0072566 0.0069201 0.0071593 -0.0051505 0.00073858 0.0046166 0.0082619 0.0078105 -0.0064419 -0.0083084 -0.0038172 -0.0072211 -0.0011957 0.0058482 0.0057351 0.0080837 0.0063146 0.0024179 0.0084359 -0.006746 0.0025885 0.0069578 
专栏 0.0048561 -0.0089544 0.0065839 -0.0076756 0.0089652 -0.0085825 0.0077116 -0.0090693 0.0019783 0.0008873 -0.0038759 -0.0065741 -0.003787 -0.0054626 0.0028611 0.0010896 -0.0072203 0.0079718 -0.002661 0.0022027 0.0087753 -0.0073204 0.0027412 0.0082165 -0.0059105 -0.0099139 -0.0026408 0.006274 -0.0058341 -0.0092426 0.0045763 -0.0040798 -0.0069675 0.000975 0.0083569 0.001909 0.0044448 -0.0048528 -0.0085741 0.0076835 0.0089062 0.0053108 0.0067363 -0.0035739 0.0018463 -0.0038716 0.0063294 -0.0064423 0.0029505 -0.0075065 0.0075385 -0.0028735 -0.002219 0.0009294 0.0050631 0.0074243 -0.00062723 -0.0092981 -0.0063664 -0.0073654 -0.0034448 0.0058923 0.0022391 -0.0098383 -0.0020205 -0.0090588 0.0076023 -0.0033775 0.0063664 0.0024285 -0.0031447 0.002333 0.0071037 -0.0017237 0.0070477 0.0029416 -0.0013631 -0.006403 0.00086686 0.0019719 0.0080681 -0.0049066 -0.0015077 0.0065491 -0.0047502 -0.009309 -0.0037509 -0.0083806 -0.0055553 0.0081658 0.0001392 -0.0083106 0.0042568 -0.0045097 0.00068967 -0.0081202 0.00040038 -0.0049301 0.0021051 0.00033629 
圈子 -0.0013484 0.0057455 -0.00074214 -0.0089648 0.0076358 -0.00072726 -0.00020265 5.1049e-05 -0.0049193 0.00024841 -0.00078732 0.00040621 0.0059151 -0.0034281 -0.0082885 -0.0011909 -0.0015931 0.0048137 -0.0050042 0.0068254 0.0012352 -0.0010851 0.0068865 0.0097621 0.0034063 -0.0092702 -0.0089205 -0.0096962 0.0043697 0.0042682 0.0027499 -0.0052749 -0.0094593 -0.00075083 -0.0071979 0.0076926 0.0056972 -0.0014316 0.0014449 -0.0071007 -0.0032034 0.0013301 0.0051315 0.0018226 0.0095136 -0.005146 -0.0051807 -0.009052 0.0095607 0.0073453 0.0040255 0.0021842 0.0069023 -0.0013346 -0.0065175 0.0032157 -0.008835 -0.0068633 -0.0064776 -0.0025125 0.0046009 -0.0023617 -0.008193 0.0053028 -0.0075431 0.0044929 -0.0036337 -0.0048749 0.0029078 0.00942 0.0031527 -0.003178 -0.0038766 0.0039765 -0.0069657 0.0073867 0.0039126 -0.0046561 0.0011351 0.0032126 0.0093179 -0.00034098 0.0038722 -0.0029558 -0.0095824 -0.0025579 -0.008242 -0.0083843 -0.0023174 0.0005992 0.0020725 0.0059193 -0.0066189 0.0088215 0.0072687 0.0077956 -0.004347 -0.0016862 0.0058433 0.0032172 
New 0.0039215 -0.009868 -0.0039553 -0.0097759 -0.0044382 -0.0074126 0.0017587 -0.0066544 0.0029677 -0.0064161 -0.0093273 -0.0092151 -0.0064025 -0.0052476 -0.0096921 -0.005168 0.0086156 0.0071605 0.0058955 -0.0057301 -0.005499 -0.0058024 0.0086803 -0.005874 0.0091896 -0.0016035 -0.0072636 -0.0083239 -0.0036363 -0.0046218 0.0082483 0.0088601 0.0062485 -0.0060639 -0.0041639 -0.0051217 -0.0051462 0.0083221 0.0080387 0.0025447 -0.00048227 -0.0096343 0.0032354 -0.0070987 -0.0035213 0.0023143 0.0041333 -0.0046464 -0.0037916 0.001582 0.0071056 0.0046057 -0.0094204 -0.0011296 0.0056808 0.0013475 0.0035211 -0.0058994 0.0024523 0.0077114 -0.0095216 0.0095623 0.0058802 -0.0022579 -0.0044219 0.0053283 -0.0093133 0.0051668 0.0011181 0.00088809 0.0099774 0.0069455 0.005897 0.0065632 0.0046313 0.0015449 0.0013806 0.0072597 0.0078021 -0.0010817 -0.0099217 0.0077766 0.0094677 0.0023701 0.0052324 -0.002301 0.002329 -0.0035003 -0.0056684 0.0040265 0.0059534 0.0027329 -0.00056286 0.0095748 -0.0061834 0.0040754 -0.0086099 -0.0072778 0.0050571 0.00028586 
or 0.0093965 0.0040623 -0.007244 0.0014851 0.0081812 -0.0042857 0.0016017 0.0089505 0.0069382 0.0072506 -0.0037753 -0.0097823 -0.0067999 0.00065994 0.00042807 -0.00010266 -0.0056338 0.0015848 -0.0041811 -0.0073808 -0.0080484 0.006748 0.00071027 0.0011809 0.0091165 0.0044361 0.0019332 -0.0094456 -0.0089832 -0.00090184 0.0015455 -2.9435e-05 6.7605e-05 -0.0028412 0.0073362 -0.00075981 0.0074325 -0.00032467 0.002692 0.0014118 -0.00080126 -0.0022589 0.0063187 -0.0039471 -0.008839 0.00070136 -0.0043992 -0.0076302 0.0086667 0.0067005 -0.0098603 0.00033343 0.0024515 0.0060871 -0.0015207 0.0087879 5.7502e-06 -0.0014755 -0.00063984 0.0028325 -0.0017779 0.0038675 0.0043761 0.00067536 0.008429 0.0044977 -0.0096639 -0.0076859 -0.0034586 -0.0013471 0.0021152 -0.0016602 -0.0078543 0.0020801 -0.0042718 0.0013856 6.3818e-05 0.0056607 0.0049035 0.0034689 -0.00084764 0.0085822 0.0091227 0.0098702 0.0050739 0.0084227 0.0025987 0.00067654 -0.0055879 -0.00064492 0.0036136 0.0084513 -0.0083012 0.0073559 -0.0087563 0.0018437 -0.0025691 -0.0031796 0.0032547 -0.0068027 
知学堂 0.0090195 0.0040254 -0.0028232 -0.0034982 0.0047493 0.0025537 0.0077302 0.0010841 0.0060341 -0.005594 -0.0012414 0.0040428 0.003617 -0.0091933 -0.0063494 0.0031001 0.0052748 -0.005465 0.0061585 -0.0013185 0.004675 1.0113e-06 0.0018794 0.0095072 0.001481 0.0025357 0.00069604 0.0079875 -0.0039513 -0.0045035 0.0048067 0.0078226 -0.0025613 -0.002475 0.0032532 0.0047632 0.0013891 -0.0090016 -0.0065231 0.0053236 -0.0086799 0.0070598 0.0054587 -0.0036547 -0.0067136 0.0020069 0.0061789 0.0083308 -0.0057883 -0.0040972 -0.0069195 0.0056888 0.0010244 0.0073997 -0.0086827 0.0076301 0.0028764 -0.0011095 0.0010875 0.0021335 0.0036541 0.0043833 0.0088243 -0.0045288 0.001742 0.0090972 0.0013811 0.00070756 -0.0069691 -0.0097786 -0.0034969 -0.0087299 0.0076673 0.0038974 0.0024125 0.0013547 -0.0013693 -0.006021 0.0029414 0.0070065 -0.0013229 0.0083846 -0.0056807 0.0029115 0.0066678 -0.0076695 -0.000818 0.0051298 0.0082463 -0.0037833 -0.0079293 0.0064329 -0.0041349 0.0030766 0.0024533 0.0088481 0.0087539 0.00094681 0.0075783 -0.0072372 
​ -0.0026733 0.00063101 0.0024699 -0.0035143 0.002336 -0.00062835 -0.0072074 0.0086239 0.0044194 -0.006478 0.0045099 0.00035304 -0.0078398 0.0061381 0.0095206 0.0036288 0.0090451 0.0070593 -0.0034504 -0.00058967 -0.0058142 0.002673 0.0022526 -0.0086906 0.0083709 -0.0099204 0.0051255 0.00014513 -0.0070441 -0.005375 -0.0053178 0.0060405 -0.0063206 0.0025281 0.0056893 -0.005912 -0.0085873 0.0073989 0.00032216 -0.00072648 -0.0071548 0.0097978 -0.0090879 -0.003878 0.0077071 0.0071008 0.0081199 -0.0077231 -0.0084748 0.0070583 0.0083645 -0.0089294 -0.0090258 0.00079701 0.0050309 -0.0067294 0.0012555 0.00098649 0.0067647 0.0059194 0.0031225 -0.0019116 -0.0079773 -0.0069153 0.0019307 0.005231 0.0070446 0.004655 -0.0007001 -0.0021593 -0.0083555 -0.0053722 -0.0016233 0.0027859 -0.0061004 -0.0019279 -0.0063224 0.0072979 -0.0069428 -0.0070675 -0.0049184 0.00018861 0.00041449 0.0075951 0.0087952 -0.0099141 0.0065625 0.0050578 0.0022756 -0.002285 0.0093796 -0.0088337 0.0074039 -0.0086572 0.0077941 -0.00080978 0.009296 -0.0098384 -0.0080592 0.0069067 
直答 0.0019122 -0.0029081 -0.0075753 0.0052354 -0.00087728 -0.0085425 -0.0083451 -0.0053358 0.007294 0.0066695 -0.0066171 0.0062236 0.00035179 -0.0021705 -0.0098891 -0.0067957 0.0025415 -0.0089985 0.0082144 0.00017212 -0.0012823 -0.0021584 -0.0070116 0.0036512 0.0072746 -0.0020384 4.2471e-05 -0.0078658 -0.0081448 -0.00017556 -0.0075587 -0.0068817 0.0060629 0.0076609 -0.00063719 0.00060814 0.0081279 -0.005227 0.0045251 0.0060235 0.0073468 -0.0098847 -0.0054673 -0.0079896 -0.0096562 0.0042795 -0.0016412 -0.0011327 -0.0041307 0.0075779 -0.0098339 0.0055164 0.009025 0.0039943 0.0041747 0.0058939 0.0039284 -0.0032172 -0.00055024 0.0037225 0.0015164 -0.0023117 -0.004412 -0.0019675 0.00015826 -0.0042954 0.0098256 0.0034821 -0.0032302 0.0036555 0.0024292 -0.0027317 -0.0086872 0.0054987 0.0057002 -0.0049686 0.0011804 0.0097538 -0.0034003 0.0057628 0.005028 0.0085024 -0.0073919 0.0029893 0.0012177 -0.0023892 -0.0018105 -0.009569 0.009214 0.0023961 0.0069444 -0.0037605 -0.0092519 -0.0042917 0.0070544 0.00023508 -0.0023675 0.0080565 -0.0080338 0.00052784 
切换模式 -0.0014674 -0.00082644 0.0090203 0.0097773 0.0043891 0.0060223 -0.009089 0.0011066 0.0094736 0.0066946 -0.0074749 -0.0047195 0.0061033 -0.0042424 -0.00062325 -0.0085049 0.0014986 0.0089826 0.0044377 -0.00064817 -0.0067698 -0.0054632 0.00726 0.0092269 0.008042 0.0081548 0.0078668 0.0013767 -0.0088362 0.0091977 0.0064118 0.003538 -0.002419 0.0074311 -0.006237 -0.0032479 -0.0026652 -0.0033425 0.0089509 0.006575 0.0090745 -0.0029349 -0.0027784 0.0087525 -0.0044659 0.0093274 -0.002774 -0.0029409 -0.00045308 -0.0067279 0.0050687 0.0048305 -0.0057599 0.0035353 -0.0034898 -0.007702 0.007122 -0.0095892 -0.00021923 -0.0035343 0.0073854 0.0051936 -0.007529 0.0052636 0.0019325 0.0032406 0.0047904 0.0092574 0.0012021 0.0094736 -0.0090202 0.0010395 -0.00041473 0.0060065 0.00046759 0.00099511 0.0082415 0.0064531 -0.0051911 0.00033206 -0.0043256 -0.0098002 0.0084412 -0.004866 -0.0060032 0.00046843 0.0035001 0.0021179 0.0030061 0.0017585 0.0077565 0.0035189 0.0053344 -0.0050388 0.0072828 -0.003923 -0.0089029 0.0078668 -0.0074143 -0.0093207 
登录/注册 -0.008066 0.0054681 0.0016502 -0.0063744 -0.0069046 0.00034761 0.0075536 0.0066136 0.0027834 0.0094903 -0.0036248 0.0083075 -0.0043001 -0.0089862 0.0096245 0.0041599 -0.0030563 -0.0098125 0.0056 -0.0028684 -0.0044229 0.0094419 -0.00014854 -0.0052239 -0.0030565 0.0091991 -0.0092327 -0.0060712 0.0089267 0.0035329 -0.0050573 -0.0038076 -0.00020194 -0.0093356 0.0082592 0.0094499 0.0041698 0.0015524 -0.0027154 0.0062072 -0.009975 0.0072121 -0.005784 -0.0045901 0.0040527 0.0096485 0.00043974 0.0031642 0.00035822 -0.0024438 -0.0050801 -0.0091525 -0.0081898 0.004477 -0.0053051 -0.0023523 -0.0082066 0.0034214 0.003798 0.0078016 -0.00074881 -0.0023808 0.0083981 -0.00067778 0.0027394 0.0021369 0.0045587 -0.0062872 -0.0088586 -0.0084141 0.0078566 0.0053158 0.0090494 0.0033585 0.0080958 0.0073484 0.00043584 -0.0055125 -0.0077797 0.0082594 0.0024916 -0.0090761 -0.0065374 -0.0060155 0.003911 -0.0019661 0.009961 -0.0093142 -0.0037066 -0.0036152 -0.0056092 -0.0075519 -0.0074238 0.008971 0.0066795 -0.0084612 -0.0032378 -0.0079501 0.0058826 0.0042919 
5 -0.0034696 -0.00030946 -0.0045271 0.0025512 0.0014737 0.0033483 -0.0030709 -0.0071114 0.00832 0.0059033 -0.0098784 0.0079246 -0.0094762 -0.0099441 0.0055914 0.0034957 -0.007469 0.0056829 0.0017217 -0.0039671 -0.0047287 0.007361 0.0079569 -0.0065929 -0.0019706 -0.0068498 0.0053525 -0.007143 -0.0018301 -0.0092309 -0.0048564 -0.0045388 -0.0023718 -0.004928 -0.0028319 0.0042454 0.002511 0.004561 0.0036255 0.0018821 0.0014083 0.0032265 0.0038325 -0.00019474 -0.0011325 0.0030487 0.00079152 -0.0016336 -0.0095364 -0.0032866 -0.0080253 -0.0019959 0.0071168 -0.0082858 -0.0084997 -0.00014882 0.0092941 -0.001495 0.0065484 -0.0010263 0.0087579 0.0025603 -0.006114 -0.0068892 0.0084169 -0.0043016 -0.0077452 0.0089304 3.5167e-05 -0.0044987 -0.0039128 -0.0023882 -0.0028903 -0.0089256 -0.0053541 -0.0036697 0.0040654 0.00067118 0.0051376 0.00084646 0.0033919 0.007454 0.00494 -0.0056395 0.009361 0.0056424 0.0084496 0.0075072 -0.0073877 0.0019063 0.0084545 -0.002778 -0.0056779 0.0044473 -0.0034458 -0.0065669 0.0092663 0.0062121 0.0093834 0.0041528 
秒后自动跳转至知乎首页 0.001687 0.0063357 0.0094293 0.0029307 0.004105 -3.6548e-05 -0.0098895 -0.0021649 -0.0097125 -0.0076086 -0.0011561 0.0046613 0.003756 0.0016755 0.0066702 -0.0079868 0.0061378 0.0011749 -0.0011059 -0.0048408 0.0020467 0.0029681 -0.0014685 0.0069374 0.0046484 0.0039103 -0.00086474 0.0083548 -0.0061823 -0.0048005 -0.0069002 0.0065981 -0.0029891 0.0023321 -0.0095143 -0.00078782 -0.0092676 -4.8526e-05 -0.0087913 0.0013175 -0.0092265 -0.002028 0.0002805 0.0060866 -0.0041531 -0.0020621 -0.0034941 -0.0060482 0.0027515 -0.0072061 -0.0074336 -0.0095275 0.0073451 0.0063542 -0.0095091 -0.0063864 -0.0015018 -0.0062978 0.0019494 0.0033978 -0.00085823 -0.0066826 -0.0044975 -0.0019094 0.0054003 -0.0082792 0.0035828 -0.0066448 -0.0069831 -0.00060379 0.0032763 -0.0070003 0.0027887 0.00023871 -0.00051661 0.0019911 0.0037784 0.0063266 -0.0068735 0.0017575 0.0052804 -0.004206 0.00040658 0.0066132 0.0079733 7.2312e-05 -0.0060136 -0.0022958 -0.0062536 -0.004183 0.0057989 0.0099943 0.0046231 -0.0042988 0.0095993 8.9111e-05 0.0017957 0.0017129 0.0079401 -0.0084098 
去往首页 -0.0014067 0.0047582 0.0012461 0.0076515 0.007131 0.0063308 0.0025368 -0.0072324 0.0069293 0.0013357 -0.0020511 -0.0036115 -0.0038068 -0.0065779 0.0038122 0.0040638 -0.0058883 0.0087949 -0.0090094 0.0048917 0.0013823 0.0050994 -0.0024705 -0.0060457 -0.0051157 -0.00092257 0.0062147 -0.0017109 -0.0033461 -0.0052764 0.0070265 -0.0042048 0.00039759 -0.0090572 0.0048446 -0.0048911 -0.0054591 0.0066001 0.0088536 0.003725 0.0012791 0.0077271 -0.0021005 0.0069411 0.0035062 -0.009868 -0.0042685 0.0038618 -0.0097119 0.0046668 -0.0057975 0.0063893 0.0017686 0.001687 0.0071669 -0.0034587 -0.0058242 0.0052206 -0.0075974 0.0060776 -0.0051263 0.0088935 -0.002054 -0.0059722 -0.0036163 0.0068281 -0.0028394 -0.0040944 -0.0083899 0.00083063 -0.00063247 -0.0046621 0.0030282 -0.0051471 -0.0047787 -0.0010396 0.0056489 -0.0087457 0.0027075 0.0077098 0.00094529 0.0097548 0.0038263 -0.0029595 -0.0033971 0.0049248 -0.0073673 0.0076905 -0.0026295 -0.0026837 0.0079978 0.0038416 0.0051025 -0.0028829 -0.0083088 -0.0017607 -0.0023103 -0.0040695 0.0081938 0.010028 
find 0.0067026 0.0051449 -0.0092586 -0.0024738 0.0054007 -0.0021861 0.00036379 0.0060463 -0.0026214 0.0069622 0.00025142 -0.00054238 -0.006212 -0.0075552 0.0077595 -0.00017438 0.007448 -0.001463 -0.0031589 0.0071529 0.0043715 0.0095704 -0.0080011 0.0051135 -0.0073358 -0.0078433 -0.00028098 0.0068471 -0.0014855 0.0070111 0.0054972 -0.0059371 -0.0034065 -0.0056514 -0.0004219 -0.0086995 0.0039661 -0.0053233 -0.0017026 0.0047398 0.0087161 -0.0018833 -0.0018334 -0.003805 -0.0009861 0.0045248 0.0052324 -0.0094257 -0.00601 0.00050643 -0.0088044 -0.0022353 -0.0090384 -0.007873 0.0012672 -0.0071808 0.0096112 -0.0023832 0.0024449 0.0081042 0.00021233 -0.0029927 -0.0072464 -0.0022565 -0.00076877 -0.0027592 0.0071642 -0.0085952 0.0093879 0.0060047 0.0011421 0.0083733 0.0053945 -0.0070361 0.0053033 -0.00024486 -0.0082191 0.0047758 -0.004706 0.0012269 0.001892 -0.0086067 0.0027633 -0.0069654 0.0036501 -0.0082368 -0.00049441 0.007688 -0.00055749 0.0090742 0.0096576 -0.0098148 -0.00086469 -0.0090514 -0.0055122 0.0060878 -0.009132 -0.0020161 -0.0032256 0.0098639 
hello 0.008399 -0.0055988 -0.010141 0.00091417 0.0001934 0.0014211 0.0032886 0.0034656 0.002164 0.0055301 0.0093366 0.0041914 -0.0041252 -0.0011918 0.0061783 -0.0038507 -0.0016528 0.0025188 -0.0063974 0.009868 -0.0092482 -0.00043609 0.009523 -0.00027185 0.0083582 -0.0064118 0.0085227 0.0056023 -0.00012502 0.005872 -0.0093176 -0.009636 0.0060194 -0.0025572 -0.010189 0.0070684 0.0091203 0.0059369 0.0043013 0.0060091 -0.0031839 0.0063056 0.0088259 -0.0035782 -0.0017469 0.0022332 -0.0066773 -0.0078223 0.010229 0.0079417 0.008209 -0.00092176 0.0046975 -0.0043872 -0.00072902 -0.0033369 0.0079176 0.0082698 -0.0025384 -0.0010992 0.0039238 3.8649e-05 0.0003138 -0.0049183 0.0092737 -0.0013144 -0.0095196 -0.0019264 0.010343 -0.0030206 0.0050764 -0.0086101 0.00052188 0.0030588 -0.0072323 0.0070623 -0.009398 0.006222 0.0094639 0.0069626 -0.0002094 0.009248 -0.0069972 -0.0088124 -0.0018725 -0.0071076 -0.0093776 0.0030145 -0.0034235 0.0064193 0.00049746 0.0052659 -0.005771 -0.0054423 -0.0085965 -0.0026234 0.0081844 -0.0033553 0.0067725 -0.007248 
world -0.01046 0.0065775 -0.0017478 0.008903 0.0024157 0.0018065 -0.00085483 0.010792 0.0071375 -0.0093289 0.005158 -0.00058825 0.0049589 -6.1804e-05 -0.0039999 -0.0094311 -0.0080471 -0.0058686 0.0024233 -0.004529 0.0089908 -0.0095253 0.0046356 -0.0034016 -0.0026735 0.0082638 0.0082446 -0.0010511 -0.004198 -0.0035933 -0.0010654 -0.00050442 0.0053763 0.0062651 -0.0050354 -0.0053076 0.0077535 0.0075781 0.009195 0.0035219 -0.0070032 -0.0048255 0.0068516 0.0070424 -0.0018498 -0.0086882 -0.0029242 -0.0095409 0.0021737 -0.0065067 0.0081701 0.0057933 0.0053877 0.0004246 0.0065471 0.0032173 0.0067158 0.0052894 0.0094178 0.007236 -0.0065605 0.0011056 0.0049011 0.0097924 -0.0086723 0.0062865 -0.002269 -0.0063964 0.008987 0.004675 -0.010428 -0.0050695 -0.0016894 -0.0060907 -0.008072 -0.0017348 0.0053067 -0.0071835 0.00481 0.0096441 -0.0085763 -0.009249 -0.0092707 0.0055448 0.0074306 0.0016336 0.00012461 -0.0062717 -0.00033169 0.0031028 0.0087385 -0.0076116 0.0036251 0.0078469 -0.0019058 0.0071311 0.006194 0.0042551 0.0023815 -0.00043799 
Type 0.0037088 -0.0021274 -0.0013277 0.0097785 -0.0073865 -0.0023758 -0.0011322 -0.0039977 0.0065961 -0.0059533 0.00041056 0.0076641 0.0025458 -0.0039898 -0.0081605 -0.0022181 0.0011891 0.00026215 0.009886 0.0047681 0.0084864 0.0010346 -0.0093238 0.0098036 -0.007932 0.0088633 -0.0033555 -0.0032894 -0.0059081 -0.003455 -0.0067327 -0.0088865 -0.0095146 -0.0087348 -0.0044696 0.0096073 0.0028683 0.0067903 0.0042106 0.0030511 0.002004 -0.005066 0.0078375 -0.00080763 -0.0027742 0.008782 -0.0038639 0.0070432 0.0091078 0.0082986 -0.0078409 0.0066323 -0.0087884 -0.008671 0.0098157 0.0021447 -0.0028132 0.0014982 0.0052474 0.0029298 -0.0080024 0.0056018 -0.0067557 0.0095276 -0.0051097 -0.0020299 -0.0057964 0.007479 0.0063646 0.0088409 0.0047247 0.0036302 0.0065777 -0.0039347 0.0020555 -0.0036232 0.009348 0.0034065 -0.0033584 0.0081958 0.0004718 0.0015108 0.0082892 -0.0017128 0.0075777 -0.0013303 -0.0029723 -0.0039382 -0.0053729 0.00027635 0.0096832 0.0018573 0.0064512 0.00082987 -0.001445 -0.0029601 0.0029451 0.0059366 -0.0005163 -0.0044451 
Report 0.0029471 0.0075673 0.0064099 0.0093162 0.0049888 0.0034912 -0.0062749 0.0027048 -0.0026585 0.0093433 -0.0068794 -0.0053737 -0.0011802 0.0095782 -0.0013718 -0.0017032 0.008234 0.0064988 -0.0036328 -0.005923 0.00094708 0.005943 0.008616 -0.00022063 0.0084481 0.0040902 -0.0057619 -0.0019796 0.00167 0.0052189 0.0018942 0.0055789 -0.0066998 -0.0057376 0.0093355 0.00040022 -0.0014761 0.0055768 0.0097972 0.0041444 -0.0037298 0.008942 -0.0016026 0.0018957 0.0075606 -0.0099021 0.0027802 -0.0047205 -0.0055313 -0.0030086 -0.0030277 -0.0060409 -0.0044272 0.0088337 -0.0065302 0.0061319 -0.0077778 -0.003901 -0.0044846 0.0038548 0.0042852 -0.00029111 -0.0085755 -0.0008074 0.0065215 0.0056109 -0.0028849 -0.0066019 0.0023347 -0.0044259 0.0076507 0.0017029 0.0015024 0.0061613 0.0026258 -0.0051624 0.0069166 -0.0034495 -0.0048426 0.0038747 -0.00032552 -0.0079316 0.0030868 -0.0052925 0.0078608 -0.0071297 0.005523 -0.0080171 -0.0059694 -0.0082947 0.0023952 -0.0031061 0.0025153 -0.0008373 -0.0042144 -0.0078841 -0.0044847 0.005915 0.0046575 -0.0055562 
Message 0.0075538 -0.0047267 -0.0044473 0.0063416 -0.00182 -0.0098758 0.0047958 0.0025968 -0.0016145 -0.0084092 -0.00091614 0.0017264 -0.003872 -0.0080225 0.0066394 -0.00619 -0.00095291 0.00032094 -0.0070889 0.0052928 0.0078254 0.00063436 0.0035481 0.002904 -0.0063719 0.0022189 0.0025315 -0.0029191 -0.0040181 -0.0050598 0.0052037 0.0043848 0.0055876 -0.0082006 0.000221 0.0047635 0.0087685 -0.00851 -0.0027055 -0.0047129 0.003068 0.0016949 -0.005499 -0.0095917 0.0059161 -0.0080791 0.0051557 0.0032631 0.0028176 -0.0052094 0.003611 -0.0054241 0.004148 0.0065328 0.0039801 -0.0040879 0.007295 -0.0028398 -0.0081802 -0.0060203 0.0060376 0.00018503 0.0068555 0.0030252 0.00047654 -0.0086211 0.0024735 -0.0067162 -0.0011491 0.0063536 -0.009647 -0.0066283 -0.0014214 0.00095731 -0.0086584 -0.0062275 -0.0090739 0.000245 -0.005815 -0.0094207 0.0072654 0.0014682 0.0084347 -0.0078709 0.0052021 0.0085808 0.0096946 -0.0097763 0.00023547 -0.0095725 0.0085723 -0.0091454 0.0019195 0.0032318 -0.0065134 0.0075549 0.0067696 -0.00040125 -2.8832e-05 0.0036893 
found -0.0075266 0.007744 0.0038432 0.0094328 -0.0031864 -0.0085884 -0.0077637 -0.0093435 -0.0012069 -0.0013875 -0.0045689 -0.00066381 -0.0088556 0.0085259 -0.0044703 0.0053773 0.0015518 0.0071633 -0.0070509 -0.0042755 0.0019057 -0.0051593 -0.0034553 0.0057367 -0.0059075 0.0084623 0.0033201 0.0016273 0.0093004 0.0053117 0.0096565 0.0014401 0.0045995 -0.0098883 -0.0088205 0.0080534 0.0020551 0.00056383 0.0061867 0.0031204 -0.0094858 0.0082884 -0.0018201 -0.0031467 -0.00073635 -0.0046026 -0.0088992 -0.0060145 0.0076606 0.0089274 -0.0070724 -0.003143 0.00066291 -0.0055572 -0.0047926 -0.0045461 0.0043642 -0.00068009 0.0045607 -0.0068469 0.008721 -0.0080966 0.0041622 -0.0077387 0.0057117 -0.0069797 0.008057 0.0078667 0.003408 -0.0014308 -0.0088058 0.0028542 -0.0040249 -0.0070821 -0.0048103 0.0011533 -0.0099984 -0.0053586 0.0077015 0.0030473 -0.0056678 -0.0047888 0.0055101 -0.004555 -0.005327 0.0045591 -0.0093338 0.0009602 -0.0022413 0.0012109 -0.0086959 0.0014108 -0.0086278 0.0083944 0.00059596 -0.0065997 0.0075355 0.0050033 -0.0072006 -0.007492 
Description -0.0021192 0.0022709 0.0077547 -0.0028607 0.0035842 0.004651 0.0048543 0.0029728 -0.0038185 -0.0055203 0.0068707 -0.0070955 0.0034876 -0.0030896 -0.009853 -0.0014683 0.0036324 0.007087 0.0016202 0.006888 -0.0033324 -0.004347 -0.0017735 -0.0048756 0.0062814 -0.0034823 -0.0053804 0.0093372 -0.0040659 0.0052258 -0.0049533 -0.0043221 0.0060348 -0.0045296 -0.0024737 0.0097841 0.0036783 0.0022507 -0.0081861 -0.0039879 0.0057999 0.0091555 0.007808 0.0086222 -0.00027432 -0.0031406 -0.0088385 -0.0084415 0.0045286 0.0089966 0.0048708 -0.0054269 0.0077668 -0.0010306 -0.0044979 0.0052309 0.0099331 -0.0098273 -0.0037721 0.00063804 -0.0099482 0.0061091 0.0039545 0.0015816 0.0016378 -0.0065301 -0.0034437 -0.0035863 -0.0074562 0.004567 -0.0070142 0.007278 -0.0034268 -0.0057638 -0.0033516 0.0046429 -0.0074585 0.0048561 0.0013256 0.0029175 -0.0010556 0.0046071 -0.00019192 -0.004873 -0.0081973 -0.004986 -0.0096582 0.0031979 -0.00032642 0.00016799 -0.0090683 -0.0046023 0.00062201 0.0086871 0.0032755 0.002295 -0.0073924 0.00025138 0.0051753 -0.00039366 
The 0.003425 -0.00071532 -0.0012153 -0.00047002 -0.0065358 0.0052427 0.0058996 -0.0090321 0.0067836 -0.0090435 0.00015869 -0.0025946 -0.0023739 -0.0074758 0.0053024 -0.0038217 -0.0044364 -0.0030568 -0.0077642 0.0099457 -0.0088974 0.0035645 -0.0064217 -0.0043798 0.0020111 0.0087187 -0.00025462 -0.0058778 0.0076854 0.004204 -0.0097084 0.0031419 0.0067883 -0.0018707 -0.00011998 -0.0071459 -0.0024995 -5.5662e-05 0.0063843 0.0024739 0.0093718 -0.0057577 -0.0048444 -0.0012944 -0.002754 -0.0096091 -0.0044192 -0.005942 0.0014691 -0.0048726 0.001152 0.0095494 0.008729 0.0011401 -2.5419e-05 0.0099445 0.0076109 0.0023848 0.001105 -0.001417 0.0059885 -0.0074707 -0.0065825 -0.00026485 0.0063785 -0.0077698 -0.0029512 -0.0063032 0.0026914 -0.0086129 0.0088627 -0.0027028 -0.0019976 0.00036832 -0.007824 -0.0042723 -0.0069575 0.0019731 -0.0068238 -0.0094415 0.0082537 -0.00047535 0.0074912 0.006431 -0.0042488 0.0020001 0.0011163 0.0045025 0.0081249 -0.0023505 -0.0095455 0.0046121 0.0039065 -0.0085106 -0.0035544 0.0028696 0.001689 -0.0070915 0.0032596 0.0052282 
origin 0.00068543 0.0024269 -0.009147 0.0040564 0.0050942 -0.0081054 0.0037836 0.0065179 0.0056301 -0.0053134 -0.0041521 -0.0039111 0.0080704 -0.001809 0.0031269 -0.0091697 0.0050693 -0.0032296 0.001137 0.0017509 0.0023218 0.0048677 -0.0028828 -0.0038485 0.0056948 -0.0040201 -0.0018007 -0.0029527 0.0024398 0.0052873 -0.0094972 0.0025732 0.0093132 -0.0096033 -0.0026097 0.00077859 -0.00745 0.005633 -0.0055744 0.0012507 -0.0011427 9.2132e-05 -0.0020399 0.009648 -0.0094875 -0.006545 -0.0051234 0.0037549 -0.004624 0.0053299 0.0062908 -0.0028589 -0.0041352 -0.0006957 0.0066192 -0.005102 -0.0048792 -0.0080686 0.0077216 0.0097925 -0.0049002 -0.0028269 -0.0075553 -0.007471 -0.0058504 0.009075 -0.008951 -0.0084837 -0.0081055 0.0058998 -0.0063089 -0.001247 -0.0096779 -0.0071357 0.0067627 0.0029951 -0.0020717 -0.0007508 -0.0092624 0.0047522 0.0027912 -0.0014155 0.0017542 0.0014027 -0.0084721 -0.0035685 0.0049755 0.0026972 -0.0097007 -0.0088975 0.00051926 -0.0018449 0.003857 0.0083194 -0.00078192 -0.0012053 -0.0067129 0.0048261 0.006444 0.0065037 
server 0.0073293 0.0021029 -0.0034938 -0.0027897 0.0071514 9.6463e-05 -0.0084649 -0.0072063 -0.0047821 -0.0018385 0.0081301 -0.0020299 0.0064918 0.0019464 -0.0026099 -0.0078513 0.0026105 -0.0095286 0.0031163 -0.0038366 0.0099906 -0.0053407 0.0016608 -0.0092393 0.0059312 0.0048942 -0.0084039 -0.0060472 -0.0022617 0.0098093 -0.0027501 0.0069913 0.0067253 -0.001158 0.0013891 0.0056495 -0.00028657 0.004301 -0.00063929 0.0028761 -0.0020729 -0.00092398 0.0085573 -0.0045283 0.00084287 0.006689 0.0047878 0.0056629 -0.0086532 0.0086637 -0.0022119 -0.0019829 0.0046062 0.0073593 0.0067216 0.0091534 -0.0035472 0.0052395 0.00042436 0.005163 -0.0061924 0.0028302 -0.0068887 0.0057254 -0.0071273 -0.0098531 -0.0060352 0.0013903 0.0064457 -0.0014781 0.0039815 -0.0029636 -0.009485 0.0023302 0.0061091 -0.0089061 0.0038769 -0.0046249 -0.0066279 0.004504 0.0008159 -0.0076089 0.009175 -0.0082853 -0.0090954 -0.0024183 0.0079845 -0.0017322 0.00032986 0.0091107 -0.0089531 -0.0065713 0.0081923 0.0087794 0.0052512 -0.0094482 -0.0080941 -0.0082751 -0.0081426 0.0028368 
did 0.0052601 -0.006352 0.0052938 0.0038084 -0.0047671 -0.00111 -0.0023602 -0.0012255 0.0082916 -0.0077394 -0.00079142 0.0053563 0.0031629 -0.0040712 -0.0036813 -0.006441 -0.0031379 -0.0016239 -0.0045286 -0.0020242 0.0053684 -0.0047852 0.0029969 0.0085654 -0.0044546 0.0049568 0.0045142 0.0004861 0.00034056 0.0057187 0.0004026 0.0072716 0.0033142 0.0094373 -0.0051092 0.0077402 -0.0056089 0.0019446 -0.0084404 -0.0059686 -0.0098836 -0.0066241 0.0047966 -0.00086975 -0.002259 0.005018 -0.0003454 -0.0063896 0.0019191 -0.0061604 -0.0083386 0.0076379 0.0072444 -0.0078934 0.0073727 0.0038322 0.0095827 0.0045372 0.0016236 0.002616 -0.0037861 -0.0026208 0.0094502 0.0026652 -0.005388 -0.0016844 -0.0006879 -0.0092066 0.0035879 -0.0032861 -0.00027999 0.00091454 -0.0086326 0.0049699 0.0098146 -0.0020776 -0.0065342 -0.0033089 0.0034165 0.003341 0.0036261 -0.0073402 0.0003721 -0.0063071 0.0089681 -0.00033564 -0.00046072 -0.0081337 0.0092179 0.0046553 -0.0018449 -0.0055168 0.0038344 0.0072837 -0.002944 -0.0036588 -0.0076427 -0.003655 -0.0029159 0.0049969 
disclose -0.00082682 0.0051907 -0.0063237 0.00068796 -0.0051296 -0.00099199 0.0026453 0.00023691 -0.0040981 0.0087792 -0.0038019 0.0035681 0.0021762 -0.0020913 -0.0040403 0.0047997 -0.0021375 0.00067338 -0.0076301 -0.00354 0.0085298 0.0093174 -0.0023875 0.0040485 -0.0091969 0.004895 -0.0065441 -0.0067355 0.0053374 -0.0088049 -0.005787 0.0018383 -0.0031985 0.0076077 0.0044953 0.0056094 0.0014076 0.0067251 0.0016688 -0.0036381 -0.0022177 -0.0097623 0.0019681 -0.0095116 0.0010602 -0.0047825 -0.0063703 -0.0031724 -0.0040122 -0.0028944 -0.0085162 -0.0084133 -0.0027127 -0.0004035 -0.009347 -0.00038153 0.007201 0.0042943 0.0017613 -0.0014405 -0.00099822 -0.001679 0.0074009 -0.0018475 0.0083783 0.0067459 -0.0044163 -0.0065756 0.0027745 0.00083344 0.0064733 0.0076273 0.0025892 -0.0020796 0.0016262 -0.00026694 -0.00014565 0.0066715 0.0061133 -0.0049896 0.0090683 -0.009269 -0.0034201 -0.0041497 0.0028982 -0.0054152 -0.0018326 0.00067751 0.0025134 -0.0068714 0.0043153 -0.00067363 -0.0088109 0.0076936 0.0014524 -0.0073951 -0.0029305 -0.0017271 -0.0050562 0.0054446 
a -0.0090718 0.0090387 0.0018227 0.0055667 0.0011127 0.00067888 -0.0087138 0.00032036 -0.0076775 -0.0082845 0.0098475 0.0038151 0.0017235 0.0030819 -0.00084645 -0.0068838 -0.0072016 0.0045051 0.0057038 0.0078714 -0.0099493 0.0055526 0.0088037 -0.0052997 0.00043287 0.0054088 -0.005402 0.0030326 -0.0013645 -0.0019503 0.0019749 -0.0045345 0.0089137 0.0091144 -0.002409 -0.001831 -0.0071182 -0.004458 9.6326e-05 -0.0095007 0.0087676 -0.0018813 -0.0045485 -0.0070179 0.0063513 0.0014516 -0.0067411 0.0079564 0.0038905 0.0044852 0.0024867 -0.0095712 -0.0035701 -0.0086404 -0.0091418 0.0097838 -0.0012881 -0.0068507 0.0016196 -0.0047567 -0.0060906 0.0034795 -0.0085649 -0.0076867 0.0082411 -0.0011493 -0.0060788 -0.008867 -0.0079659 0.0082355 -0.0069118 0.009914 -0.009824 0.0043361 0.004661 0.008472 0.0049186 0.0093643 -0.0046117 -0.0072094 0.0084226 0.005487 0.0026962 0.0021312 -0.0076964 -0.008614 0.0011682 -0.0052825 0.0073721 0.0033894 -0.0096905 -0.0092862 -0.0050927 0.002161 0.0069995 0.007542 -0.0099909 0.0070656 0.0087385 -0.0043134 
current 0.006439 -0.0022906 -0.0012086 -0.0086237 0.0068502 -0.00099947 -0.0093776 -0.0053946 0.0031116 0.0072935 -0.0058311 0.0066451 -0.0057483 -0.0058658 0.0014078 -0.0072111 -0.0098555 0.001319 -0.0001509 -0.0030486 0.008264 0.0071756 0.00819 0.0097329 0.00013649 0.0068491 -0.0048392 -0.0086439 -0.0011958 0.0087012 -0.0027373 0.0069159 -0.0065958 0.0046939 -0.0075204 -0.0063056 0.004883 0.0036757 -0.003503 -0.0036254 0.0079783 -0.0019755 0.0042322 0.0030439 -0.00056474 -0.0048499 0.0055727 -0.0076955 0.0021206 -0.0012502 0.0076557 -0.0018975 -0.0026736 -0.0082949 -0.0026617 -0.0038453 0.00051931 -0.00095682 0.0022873 0.0073825 -0.0006501 0.0099278 -0.006201 0.0089149 -0.0070389 -0.0049758 -0.0084971 0.0060473 0.0021444 0.00107 -0.00040985 0.0055523 0.0049695 0.0050981 -0.0035395 -0.00049715 -0.007075 -0.0079761 -0.0030104 0.00056812 -0.0073269 0.0041192 0.0010264 0.0027383 -0.0034865 -0.0060298 0.0022585 0.0066319 -0.0014799 0.0017703 -0.0037348 0.0014924 -0.0079213 0.0047522 -0.0072744 0.00517 -0.00422 0.0078527 -0.0077857 -0.0057113 
representation -0.0027205 -0.0013194 0.0077109 0.0010248 -0.0065595 0.0082167 -0.0073252 -0.0085981 -0.0038519 -0.0096179 0.0028989 -0.0075358 0.0052641 -0.0022496 -0.0052841 -0.0072642 0.0072986 -0.0020563 -0.0040177 0.004048 0.0072483 0.0067685 -0.0014932 -0.004217 0.0033035 -0.0053282 0.0083039 0.00029277 0.0064648 0.00243 -0.0057905 0.0028655 0.0017696 -0.0038821 -0.0051355 0.0077143 0.0076095 -0.0080088 0.0051386 -0.0045468 0.0045925 -0.0087643 -0.0051815 0.0030115 -0.0053913 0.008786 -0.0043025 0.0073842 -0.0011087 -0.0030183 -0.00084176 -0.009277 -0.0055872 0.002368 0.0090783 -0.002788 0.00806 0.0040919 0.0030694 0.0088402 -0.0016285 -0.0047282 -0.0054545 -0.0074807 0.0067408 -0.0098879 0.00036176 -0.0096375 -0.0040411 -0.00067301 -0.00065883 0.001988 -0.0025489 -0.0048956 0.0013326 -0.0018475 -0.0070278 0.0048251 -0.0093198 0.008468 -0.0042768 0.0095953 -0.0080667 0.0022917 0.0053551 0.0041579 0.0061405 -0.0054761 -0.0068531 0.0040812 0.0068332 -0.007744 -0.0080217 -0.0084531 0.0001527 -0.0035489 -0.0074618 -0.0079553 0.0035687 0.0018606 
for -0.0037836 0.0060908 -0.0058924 -0.0037482 -0.0061819 0.00048415 0.0040019 -0.00070324 0.0086861 0.0056207 -0.0068184 -0.00082034 0.0066828 -0.0044725 -0.0023099 0.0061705 -0.0026077 0.0045815 -0.0037859 -0.0041001 5.7264e-05 -0.0096234 -0.0093028 0.0051503 0.0075584 -0.0098176 0.0030648 0.00014875 -0.0054766 0.0054268 0.0088271 -0.0076677 0.0048471 -0.0073497 0.0055461 0.0083987 0.0086937 -0.0095792 -0.0061362 0.0037409 -0.0062364 0.0041575 -0.0052719 0.00051095 0.0081821 -0.0070423 -0.006578 -0.0005351 0.0046405 0.0032768 -0.0030958 0.0024642 -0.009204 0.0057507 -0.0097409 -0.003637 -0.0049471 -0.0080238 0.0063991 -0.0096362 0.0074353 0.005609 -0.003983 -0.0027971 0.0045482 0.0058761 -0.0098042 -0.0056594 -0.0062425 0.0097259 -0.0051405 -0.0038564 0.0022181 0.0053699 0.0086797 -0.0088072 0.0064025 -0.00042668 -0.00091384 0.001968 0.0047264 -0.0097698 -0.00082543 -0.0059314 -0.0093715 -0.0014847 0.0066183 0.0077049 0.0018352 0.0051205 -0.0095637 0.0011478 0.0080799 -0.0020585 -0.0015597 0.0016976 -0.0021158 0.0036373 0.0089388 -0.0025333 
the -0.0069957 0.0052906 0.0012382 0.0061474 -0.0097269 0.0014315 0.009564 -0.0030489 0.0036259 -0.0027497 -0.005249 0.0044606 -0.0074449 0.00095302 0.0012914 8.9172e-05 -0.007602 0.0094932 0.0032989 0.0015605 -4.9837e-05 0.0070041 -0.0049155 -0.0040614 -0.0075967 0.0052324 0.0063189 -0.0091049 0.0084002 -0.005211 0.0039568 0.0024787 -0.0084644 0.0013815 0.0040666 -0.0095116 0.0053667 0.0062105 -0.0060855 -0.0090168 0.0053037 -0.0095114 0.0041256 0.0016345 0.0038445 -0.0091205 -0.004257 0.0021154 0.009098 0.0039947 0.0066676 0.007518 0.0030683 0.0044472 0.0029101 0.0046519 0.0026691 -0.0078573 0.0079602 0.0068506 0.0078152 0.0021009 0.0091032 0.0045171 -0.0095242 0.0026357 -0.0057383 0.006543 0.004135 0.0086263 -0.00047797 -0.0097139 0.0037298 0.0014197 -0.0032659 -0.0058675 -0.0086659 0.0020082 0.00014212 -0.00023693 0.0083657 0.0067171 -0.0089008 -0.0042014 -0.0040913 -0.0032498 -0.0010818 -0.0013211 0.0072718 0.0038577 -0.002784 0.00079868 -0.0023421 0.0023218 -0.0061987 -0.0099448 -0.0071584 -0.001198 -0.0043592 0.0096595 
target 0.0012691 0.0052713 -0.001494 0.0055478 0.0074406 0.0058523 -0.0034575 -0.0073511 -0.0057601 -0.007001 -0.0083359 0.0018019 0.0031881 -0.0092297 0.00074272 0.0058163 0.0068686 0.0036028 -0.0092539 0.0046287 0.00011863 -0.0056394 0.0070744 -0.00079322 -0.0068346 0.0088536 0.0062442 0.0038408 0.0093849 0.0071609 0.0060239 0.0023359 0.0016359 -0.0011022 -0.0069274 0.00095529 -0.0039367 0.0062476 -0.0093629 0.0031587 0.0014262 0.0058187 -0.0051407 -0.0034384 -0.00048402 -0.0073349 0.0016996 -0.007972 0.0090555 0.0010271 -0.0064022 0.0029665 -0.0036577 -9.1682e-05 0.0053561 -0.0045515 -0.0095297 -0.0056885 -0.0019476 -0.0051457 -0.0039605 0.0089299 -0.0042321 0.0025056 0.0024984 0.0045155 -0.0085174 0.0091368 0.00010815 -0.0055704 -0.0051224 -0.006936 -0.0042795 0.0072397 0.0028273 0.00098849 -0.004363 -0.0011811 -0.0048572 -0.0048991 -0.0099233 0.0049816 -0.0063108 0.0077819 -0.00075784 -0.0026718 -0.007297 0.0096679 0.0047322 -0.0084309 -0.0090518 0.0036293 0.0012841 0.0040167 -0.0014661 -0.0083154 -0.0067499 0.006221 -0.0011283 -0.0019359 
resource -0.0013724 -0.0083626 -0.0088252 -0.0091468 0.00089308 0.0078657 -0.0038746 -0.0073312 0.0081305 0.0088009 -0.0059576 0.0054993 -0.0077764 -0.0059962 -0.0015264 -0.0027477 0.0048184 0.0060647 -0.0019134 -0.009102 0.0043897 0.007664 0.0041129 0.0051377 0.0030111 -0.0075285 0.0018738 -0.008737 -0.0026981 0.0054883 0.0059656 0.0024084 0.0026711 -0.0038845 0.0039868 0.00078655 -0.0057395 0.001777 -0.0014285 -0.0043386 0.0056998 0.0074192 -0.0082598 0.0086276 0.002597 -0.0059336 0.0025756 -0.0046769 0.0070215 0.0025705 -0.0096586 -0.0017226 0.0030253 0.0061841 -0.0059034 0.0022528 0.0025274 -0.0057967 -0.0089286 0.0088766 0.0034892 0.0011844 0.0023576 0.0040415 -0.003547 0.0076273 0.0057359 -0.0047925 0.0047459 -0.00054514 0.0072391 0.0037478 -0.00018527 0.0071734 0.0028633 -0.0043797 -0.0073487 0.00023454 -0.0014437 -0.0046841 -0.0094333 0.0018075 0.0029988 -0.00030644 -0.0060913 0.0014486 -0.0066638 0.0090319 -0.0050781 0.006052 0.0056469 -0.003489 0.0088359 0.0090437 -0.0072164 -0.0083492 -0.0032486 0.0053714 -0.00017747 0.0021739 
is 0.0077396 -0.0034686 0.001053 -0.00032727 0.0031126 0.0082765 0.0099783 6.0474e-05 -0.0038606 -0.00015136 0.0048574 -0.0083678 -0.0092679 -0.0081076 -0.0017364 0.0094196 -0.00064829 0.0051953 0.0013378 0.0095547 -0.0019897 -0.0025818 -0.0032277 -0.0061855 0.00082108 -0.0018333 -0.00084669 0.0055416 -0.001324 0.007427 0.0032803 -0.0049985 0.0018137 -0.0080273 0.0097611 0.0081963 0.00076778 0.0072691 -0.0071271 -0.00058893 0.0029817 0.0033804 0.0048617 0.0093107 0.0073332 -0.0080264 0.0063021 -0.0037733 -0.005437 -0.001751 0.0020415 0.00040335 -0.0051569 -0.00090071 0.0080384 0.0095843 -0.00098036 -0.0099112 0.0099817 0.007304 -0.0043152 -0.0027229 -0.0026079 -0.007604 -0.0036328 0.0029955 -0.0094552 -0.0008964 -0.0030881 -0.0045704 -0.00043957 0.0077943 -0.0052963 -0.0037583 0.002835 -0.0094395 -0.00055024 0.0039373 0.0042061 -0.0017005 -0.00057597 -0.0036505 0.0046052 -0.001 -0.0075283 0.00024907 0.0056222 0.0090856 0.0010401 -0.001003 -0.005288 0.0069542 -0.006753 -0.00060427 0.0029665 -0.0075768 -0.0026812 0.0047264 -0.00045569 0.0061373 
willing 0.0064306 0.0038941 0.0079626 0.0046363 -0.0023174 0.0011168 0.0063687 -0.0079749 0.0075064 0.0028596 -0.0022022 0.0033303 0.0049543 -0.0036118 -0.0010288 -0.004391 0.002835 0.0033751 -0.00028226 -0.0088054 0.0094095 0.0084302 -0.007388 0.0078694 0.0063233 0.00014059 0.0091195 0.0078962 -0.0032826 0.00046618 -0.0094998 0.0059916 0.0083555 0.0082298 0.0052423 0.0041771 0.0033208 -0.00082963 -0.0017252 0.00079846 0.001413 0.004541 0.002132 -0.0061918 0.0047799 0.0034348 0.00066932 -0.0048947 0.0085182 -0.0016512 -0.0035695 -0.0024876 -0.0027699 0.0042433 -0.001106 0.0072756 0.0053726 -0.00019521 0.0077554 0.00082235 -0.0055112 -0.0068865 -0.0004116 -0.0029736 0.0067919 -0.0057036 0.0032878 -0.0070147 0.0060172 0.002573 0.0086284 0.00034913 0.0087997 0.0037409 0.0086809 0.0031746 -0.0016949 0.0039048 -0.0080332 0.0066329 0.0063341 -0.0020914 0.0083194 0.0045381 0.0022584 -0.0098014 -0.0077718 -0.0010764 0.002606 -0.0076317 -0.0063431 0.0076044 -0.00079082 0.0029947 0.0049834 0.0056931 -0.0064616 0.0054596 -0.0056399 0.0029609 
to 0.0067481 -0.0040689 0.00036087 0.0093232 0.0054527 0.0083099 -0.0011911 0.00061587 0.0089743 -0.0025585 0.002762 -0.0084608 -0.0066146 0.0026938 -0.0047005 0.0021539 -0.001798 -0.0077551 0.00096358 -0.0020914 0.0096063 -0.0024403 0.0067675 -0.0093615 -0.0061435 -0.0071249 0.0026828 0.0098715 -0.00075923 0.007165 -0.0095417 0.0069167 0.0012184 -0.0052215 0.0010077 0.0088474 -0.00407 0.00076214 0.0027315 0.0059859 0.0040416 0.0052552 -0.0047216 -0.0004428 0.0057125 -0.0079132 0.0087069 -0.0050662 0.0032925 0.0045179 0.00048402 -0.0049844 -0.0071556 0.0064372 0.0019675 -0.0043221 0.0013868 0.0053465 0.0062968 0.00087918 -0.0041249 -0.0027867 -0.0023897 -0.0068411 0.0028038 -0.0021378 -0.00045489 0.00034641 0.0053245 0.00065634 -0.002106 0.0012902 -0.002094 0.0098446 -0.0047677 -0.0036669 -0.0048135 -0.0055695 0.0049373 0.00050109 0.0037136 -0.0033854 0.00075513 0.009175 -0.0097911 -0.0078702 -0.0066109 -0.0089868 -0.0067826 -0.0070992 0.0081778 0.0040191 -0.0082662 -0.0021828 -0.0016811 0.003044 -0.0027045 -0.0042769 0.0044172 -0.0013915 
